<?xml version="1.0"?>
<MethodSetup Method="MLP::MLP">
  <GeneralInfo>
    <Info name="TMVA Release" value="4.1.3 [262403]"/>
    <Info name="ROOT Release" value="5.34/02 [336386]"/>
    <Info name="Creator" value="mmarionn"/>
    <Info name="Date" value="Wed Jun 26 10:02:28 2013"/>
    <Info name="Host" value="Linux mmarionn-ltop 3.2.0-32-generic #51-Ubuntu SMP Wed Sep 26 21:33:09 UTC 2012 x86_64 x86_64 x86_64 GNU/Linux"/>
    <Info name="Dir" value="/home/mmarionn/Téléchargements/root/tmva/test"/>
    <Info name="Training events" value="5266"/>
    <Info name="TrainingTime" value="2.84989161e+01"/>
    <Info name="AnalysisType" value="Classification"/>
  </GeneralInfo>
  <Options>
    <Option name="NCycles" modified="Yes">600</Option>
    <Option name="HiddenLayers" modified="Yes">N+5</Option>
    <Option name="NeuronType" modified="Yes">tanh</Option>
    <Option name="RandomSeed" modified="No">1</Option>
    <Option name="EstimatorType" modified="No">MSE</Option>
    <Option name="NeuronInputType" modified="No">sum</Option>
    <Option name="V" modified="Yes">False</Option>
    <Option name="VerbosityLevel" modified="No">Default</Option>
    <Option name="VarTransform" modified="Yes">N</Option>
    <Option name="H" modified="Yes">True</Option>
    <Option name="CreateMVAPdfs" modified="No">False</Option>
    <Option name="IgnoreNegWeightsInTraining" modified="No">False</Option>
    <Option name="TrainingMethod" modified="No">BP</Option>
    <Option name="LearningRate" modified="No">2.000000e-02</Option>
    <Option name="DecayRate" modified="No">1.000000e-02</Option>
    <Option name="TestRate" modified="Yes">5</Option>
    <Option name="EpochMonitoring" modified="No">False</Option>
    <Option name="Sampling" modified="No">1.000000e+00</Option>
    <Option name="SamplingEpoch" modified="No">1.000000e+00</Option>
    <Option name="SamplingImportance" modified="No">1.000000e+00</Option>
    <Option name="SamplingTraining" modified="No">True</Option>
    <Option name="SamplingTesting" modified="No">False</Option>
    <Option name="ResetStep" modified="No">50</Option>
    <Option name="Tau" modified="No">3.000000e+00</Option>
    <Option name="BPMode" modified="No">sequential</Option>
    <Option name="BatchSize" modified="No">-1</Option>
    <Option name="ConvergenceImprove" modified="No">1.000000e-30</Option>
    <Option name="ConvergenceTests" modified="No">-1</Option>
    <Option name="UseRegulator" modified="Yes">False</Option>
    <Option name="UpdateLimit" modified="No">10000</Option>
    <Option name="CalculateErrors" modified="No">False</Option>
    <Option name="WeightRange" modified="No">1.000000e+00</Option>
  </Options>
  <Variables NVar="8">
    <Variable VarIndex="0" Expression="pt_lep" Label="pt_lep" Title="pt_lep" Unit="" Internal="pt_lep" Type="F" Min="3.00017776e+01" Max="6.80760498e+02"/>
    <Variable VarIndex="1" Expression="pt_tau" Label="pt_tau" Title="pt_tau" Unit="" Internal="pt_tau" Type="F" Min="3.00019455e+01" Max="1.16995349e+03"/>
    <Variable VarIndex="2" Expression="mtj" Label="mtj" Title="mtj" Unit="" Internal="mtj" Type="F" Min="2.11928577e+01" Max="1.72210266e+03"/>
    <Variable VarIndex="3" Expression="mtb" Label="mtb" Title="mtb" Unit="" Internal="mtb" Type="F" Min="2.88981247e+01" Max="1.99847119e+03"/>
    <Variable VarIndex="4" Expression="tmassL" Label="tmassL" Title="tmassL" Unit="" Internal="tmassL" Type="F" Min="3.11075374e-02" Max="7.79743408e+02"/>
    <Variable VarIndex="5" Expression="tmassJ" Label="tmassJ" Title="tmassJ" Unit="" Internal="tmassJ" Type="F" Min="0.00000000e+00" Max="1.76292505e+03"/>
    <Variable VarIndex="6" Expression="dphiLM" Label="dphiLM" Title="dphiLM" Unit="" Internal="dphiLM" Type="F" Min="-3.14048290e+00" Max="3.13704562e+00"/>
    <Variable VarIndex="7" Expression="STbjet" Label="STbjet" Title="STbjet" Unit="" Internal="STbjet" Type="F" Min="3.07588100e+01" Max="1.14747229e+03"/>
  </Variables>
  <Spectators NSpec="0"/>
  <Classes NClass="2">
    <Class Name="Signal" Index="0"/>
    <Class Name="Background" Index="1"/>
  </Classes>
  <Transformations NTransformations="1">
    <Transform Name="Normalize">
      <Selection>
        <Input NInputs="8">
          <Input Type="Variable" Label="pt_lep" Expression="pt_lep"/>
          <Input Type="Variable" Label="pt_tau" Expression="pt_tau"/>
          <Input Type="Variable" Label="mtj" Expression="mtj"/>
          <Input Type="Variable" Label="mtb" Expression="mtb"/>
          <Input Type="Variable" Label="tmassL" Expression="tmassL"/>
          <Input Type="Variable" Label="tmassJ" Expression="tmassJ"/>
          <Input Type="Variable" Label="dphiLM" Expression="dphiLM"/>
          <Input Type="Variable" Label="STbjet" Expression="STbjet"/>
        </Input>
        <Output NOutputs="8">
          <Output Type="Variable" Label="pt_lep" Expression="pt_lep"/>
          <Output Type="Variable" Label="pt_tau" Expression="pt_tau"/>
          <Output Type="Variable" Label="mtj" Expression="mtj"/>
          <Output Type="Variable" Label="mtb" Expression="mtb"/>
          <Output Type="Variable" Label="tmassL" Expression="tmassL"/>
          <Output Type="Variable" Label="tmassJ" Expression="tmassJ"/>
          <Output Type="Variable" Label="dphiLM" Expression="dphiLM"/>
          <Output Type="Variable" Label="STbjet" Expression="STbjet"/>
        </Output>
      </Selection>
      <Class ClassIndex="0">
        <Ranges>
          <Range Index="0" Min="3.0199550628662109e+01" Max="6.8076049804687500e+02"/>
          <Range Index="1" Min="3.0924467086791992e+01" Max="1.1699534912109375e+03"/>
          <Range Index="2" Min="6.2795570373535156e+01" Max="1.7221026611328125e+03"/>
          <Range Index="3" Min="6.9863739013671875e+01" Max="1.9984711914062500e+03"/>
          <Range Index="4" Min="6.4646013081073761e-02" Max="7.7974340820312500e+02"/>
          <Range Index="5" Min="1.0629309415817261e+00" Max="1.7629250488281250e+03"/>
          <Range Index="6" Min="-3.1038405895233154e+00" Max="3.0005023479461670e+00"/>
          <Range Index="7" Min="9.4602867126464844e+01" Max="1.1474722900390625e+03"/>
        </Ranges>
      </Class>
      <Class ClassIndex="1">
        <Ranges>
          <Range Index="0" Min="3.0001777648925781e+01" Max="3.5314511108398438e+02"/>
          <Range Index="1" Min="3.0001945495605469e+01" Max="2.7288653564453125e+02"/>
          <Range Index="2" Min="2.1192857742309570e+01" Max="1.3461018066406250e+03"/>
          <Range Index="3" Min="2.8898124694824219e+01" Max="6.9673425292968750e+02"/>
          <Range Index="4" Min="3.1107537448406219e-02" Max="5.1002398681640625e+02"/>
          <Range Index="5" Min="0.0000000000000000e+00" Max="7.4435357666015625e+02"/>
          <Range Index="6" Min="-3.1404829025268555e+00" Max="3.1370456218719482e+00"/>
          <Range Index="7" Min="3.0758810043334961e+01" Max="6.8558422851562500e+02"/>
        </Ranges>
      </Class>
      <Class ClassIndex="2">
        <Ranges>
          <Range Index="0" Min="3.0001777648925781e+01" Max="6.8076049804687500e+02"/>
          <Range Index="1" Min="3.0001945495605469e+01" Max="1.1699534912109375e+03"/>
          <Range Index="2" Min="2.1192857742309570e+01" Max="1.7221026611328125e+03"/>
          <Range Index="3" Min="2.8898124694824219e+01" Max="1.9984711914062500e+03"/>
          <Range Index="4" Min="3.1107537448406219e-02" Max="7.7974340820312500e+02"/>
          <Range Index="5" Min="0.0000000000000000e+00" Max="1.7629250488281250e+03"/>
          <Range Index="6" Min="-3.1404829025268555e+00" Max="3.1370456218719482e+00"/>
          <Range Index="7" Min="3.0758810043334961e+01" Max="1.1474722900390625e+03"/>
        </Ranges>
      </Class>
    </Transform>
  </Transformations>
  <MVAPdfs/>
  <Weights>
    <Layout NLayers="3">
      <Layer Index="0" NNeurons="9">
        <Neuron NSynapses="13">
          -8.3544742883685276e-03 1.5048034700860742e+00 9.0249612272239677e-01 6.3690438281518347e-01 -1.5598473562824708e+00 -1.4763807805370484e+00 -8.7353604411510077e-01 1.6803193670330883e+00 -1.2884998962076046e+00 -1.1647920658058553e+00 -1.5679474567749010e+00 -1.2750716173466066e+00 -1.5378004359163122e+00 
        </Neuron>
        <Neuron NSynapses="13">
          -4.7138137010541131e-01 2.0672489125270926e-01 6.8754242899946261e-01 -6.5645979952386146e-01 1.8703448963145382e+00 1.6634772398104999e-01 1.1953677008992643e+00 -8.1577550583022573e-01 -8.1741919117652206e-01 7.0696362363935983e-01 1.3764291437430856e-01 -1.7100263144091963e+00 -7.3568810034153453e-01 
        </Neuron>
        <Neuron NSynapses="13">
          1.3505398641337503e+00 1.0493589717211860e+00 -1.9480620762172718e+00 1.6507541294617903e-01 9.2124463350946140e-01 1.6589193323335245e+00 -6.3637414433361417e-01 5.9199394764487223e-01 3.3021992894483576e-01 -3.1559006089157654e-01 -1.3399806739112172e+00 1.1072005282429243e+00 -1.4000155766719404e+00 
        </Neuron>
        <Neuron NSynapses="13">
          1.2274644963378680e+00 2.1464494816788000e+00 8.1621757964399266e-01 1.3613614490189752e+00 1.2855131590152873e+00 -7.4344802353914285e-01 -1.5442519044556482e+00 3.5446226007753806e-01 3.1162171109291223e-03 1.3012813371653418e+00 1.3074460263001719e+00 1.0112606959499162e+00 1.0716406737678217e+00 
        </Neuron>
        <Neuron NSynapses="13">
          -1.1640609383221139e+00 -7.0468916855171460e-01 -1.5775682908506643e+00 -2.5301106523597844e-01 -1.8624866712034636e+00 -1.7240877718847776e+00 1.1947685270364619e+00 6.2384646443032088e-01 -1.7415872814733717e+00 5.0604769537835259e-01 -2.8254837504740477e-01 4.4641872803129329e-01 1.1267764398454345e+00 
        </Neuron>
        <Neuron NSynapses="13">
          -6.0644126673260766e-02 1.9719814727175093e+00 -1.1617870410376345e+00 1.0836088348298372e+00 7.2346338438304436e-01 -7.5282245571593875e-01 -1.0719315928585014e+00 1.2388890227223948e+00 8.4010167811992420e-01 1.2032719423225509e+00 -2.8510232878591901e-01 -1.9501528675367410e+00 -1.9185008378449926e+00 
        </Neuron>
        <Neuron NSynapses="13">
          1.2279817194009224e+00 1.6329183883417042e-01 1.7184615897841393e+00 8.4771840771289930e-01 7.6428585998115617e-01 -7.6695035398752920e-01 -1.3525705328519935e-01 1.4337815478540153e-01 8.9768270059118771e-01 -8.8865919616383349e-01 -1.3946067346897950e+00 -1.0964903103201715e+00 -3.1408576287909562e-01 
        </Neuron>
        <Neuron NSynapses="13">
          1.2894507988533013e-01 1.5384303272825977e+00 -1.6620550040795317e+00 -8.0322958182077409e-01 1.2543711917879696e+00 -8.7234612709712589e-01 -1.4684288116717750e+00 -5.1612885777044415e-01 3.7634351126790638e-01 -2.0845712631722813e+00 -1.9834136357943393e+00 3.2221824949762728e-01 1.7049892283195314e+00 
        </Neuron>
        <Neuron NSynapses="13">
          -1.6759727289206123e+00 5.3653025205489353e+00 -1.1133550305109656e+00 -9.1514074144100166e-01 1.6227297517873991e+00 3.1873544751474198e-01 -2.1210389190929395e+00 9.6547326330506034e-01 7.5122270882190867e-01 5.8453585370435002e-01 -1.7179043450368399e+00 2.4419532311997409e+00 8.7571154728486600e-01 
        </Neuron>
      </Layer>
      <Layer Index="1" NNeurons="14">
        <Neuron NSynapses="1">
          4.6020963201016965e-02 
        </Neuron>
        <Neuron NSynapses="1">
          8.2400842606581637e-01 
        </Neuron>
        <Neuron NSynapses="1">
          2.1836828700142211e-02 
        </Neuron>
        <Neuron NSynapses="1">
          -8.0411743315855655e-01 
        </Neuron>
        <Neuron NSynapses="1">
          7.6449121831709502e-02 
        </Neuron>
        <Neuron NSynapses="1">
          2.6860675850681904e-02 
        </Neuron>
        <Neuron NSynapses="1">
          3.8171522099100280e-01 
        </Neuron>
        <Neuron NSynapses="1">
          2.5447341856533001e-01 
        </Neuron>
        <Neuron NSynapses="1">
          2.1268790870282298e-01 
        </Neuron>
        <Neuron NSynapses="1">
          -4.6639504758861479e-02 
        </Neuron>
        <Neuron NSynapses="1">
          1.0869414374027998e-01 
        </Neuron>
        <Neuron NSynapses="1">
          -8.5513632324496625e-01 
        </Neuron>
        <Neuron NSynapses="1">
          2.1478064320613796e-01 
        </Neuron>
        <Neuron NSynapses="1">
          3.7795240855327555e-01 
        </Neuron>
      </Layer>
      <Layer Index="2" NNeurons="1">
        <Neuron NSynapses="0"/>
      </Layer>
    </Layout>
  </Weights>
</MethodSetup>
